{
  "metadata": {
    "createdAt": "2026-04-26T05:03:49.326Z",
    "classCount": 2,
    "sampleCount": 1,
    "trainingVectorCount": 39,
    "featureCount": 81,
    "featureVersion": "mouse-features-v1",
    "modelVersion": "svm-mouse-v1",
    "matchThreshold": 0.45,
    "labelMap": [
      "69ec45edbe93d87dd42d3bce",
      "anomaly"
    ],
    "trainingAccuracy": 1,
    "augmentationsPerSample": 12,
    "eligibleUsers": [
      {
        "userId": "69ec45edbe93d87dd42d3bce",
        "username": "manav",
        "baseSampleCount": 1,
        "trainingVectorCount": 13
      }
    ],
    "algorithm": "SVM",
    "svmType": "C-SVC",
    "kernel": "RBF",
    "cost": 8,
    "gamma": 0.5,
    "scaler": {
      "min": [
        -1.3273386652843193,
        -0.3931751032359898,
        -1.285822389093123,
        -0.5594119026636479,
        -1.2137814261055424,
        -0.6678359779357735,
        -1.3604279243007456,
        -0.882664564424072,
        -1.333783289585376,
        -1.0070791426994852,
        -1.3373460735532667,
        -1.04147964553428,
        -1.3259673651860298,
        -1.077602398259824,
        -1.2506920288841539,
        -1.2642543527836316,
        -1.2329631766358928,
        -1.4516024213159533,
        -1.1975696683163075,
        -1.3085196975038476,
        -1.1498681700375877,
        -1.204164497049611,
        -1.131168218289928,
        -1.0804630150437562,
        -1.0600196930031374,
        -0.9912587131561048,
        -0.9119988321453314,
        -0.9373354848795707,
        -0.9319089192923286,
        -1.038912007691501,
        -0.8490178180430841,
        -1.1762463781392005,
        -0.39570647427628625,
        -1.209690110843715,
        -0.6722543937667658,
        -0.9415251282553512,
        -0.6840866083297905,
        -1.234764544750926,
        -0.6570089092504156,
        -1.06885544809045,
        -0.6589403350205428,
        -0.9668617890474561,
        -0.6192374294175411,
        -0.8541964742535888,
        -0.6361465315802154,
        -0.6702027031951474,
        -0.5408694010634377,
        -0.5238895514446746,
        -0.984894207213074,
        -0.9448223180932228,
        -0.3047432024162071,
        -0.924942085519433,
        -0.9437071860061211,
        -0.5377144604648694,
        -0.8743203412741423,
        -0.8967981864698231,
        -0.05035129113292147,
        -0.9490881809033453,
        -0.8116593463346362,
        -0.9107457752847536,
        -0.8212880906225606,
        -0.9771605851128697,
        1.9723870782217707,
        -0.10499646115648664,
        -0.052798250698030014,
        -0.14373081263835386,
        -1.2623211256155227,
        -0.3605363327078521,
        -0.5205329617767764,
        -0.48726937176859825,
        -0.1958879181112988,
        -0.7109240937713139,
        -1.3660330856793315,
        -0.5832949175474716,
        -0.016262677924314017,
        1.8912237054103063,
        1.7176099108936733,
        1.087140064648174,
        4.455000606086376,
        1.0080690669011354,
        -0.7771981711013486
      ],
      "max": [
        0.5854952637841075,
        1.241817737929523,
        0.4368492510680912,
        1.1039246893042294,
        0.6036351210188952,
        1.1031979000008465,
        0.6351869547385409,
        1.0560826896458577,
        0.5545093417283807,
        0.8887125873867758,
        0.6391378576494882,
        0.7848498754186565,
        0.5503743316643969,
        0.6657490559652588,
        0.589294548651685,
        0.551531248390019,
        0.6025507697714649,
        0.4403154870655599,
        0.5799392009852202,
        0.5392705096971433,
        0.7218594763844153,
        0.7127950180967946,
        0.8438788890303507,
        0.7335378709614151,
        0.7975770878806735,
        0.9639465620113092,
        0.9466535149583832,
        1.0282271456554366,
        1.0329645256142952,
        0.7434799968372504,
        1.0205224753893647,
        0.7954190784438309,
        1.13504088071562,
        0.7081523560388199,
        1.2296978920184622,
        0.5847516662687,
        1.1602019762308386,
        0.7527087191599886,
        1.2212055460484885,
        0.7210610515305715,
        1.058699801037594,
        0.9747312280337747,
        1.3215336130831479,
        1.086676326418717,
        1.3510000902718038,
        1.1628441363478499,
        1.3185118429887637,
        1.3196880090075882,
        0.9458895679563284,
        0.924227483711072,
        1.4258283044612474,
        1.0195602599111804,
        0.9784545164659862,
        1.3735871766404946,
        0.8343936246819794,
        0.930868174880743,
        1.7447735353542324,
        0.9602542646144602,
        1.0389663014476271,
        1.0157550769773396,
        1.0591564309698613,
        0.9625775571912527,
        3.874039240518927,
        1.7601732237135461,
        1.9050881197716882,
        1.4471552234702183,
        0.5153496249861254,
        1.3809522790834308,
        1.2418028784568311,
        1.2389332128173796,
        1.7731868082398425,
        1.230488296590534,
        0.29873554257907553,
        1.3684304026993768,
        1.8970519524706364,
        3.549776708834969,
        3.95957519893988,
        2.886592815842415,
        7.383335111575433,
        3.504743344064459,
        1.146316558851496
      ]
    }
  },
  "model": "svm_type c_svc\nkernel_type rbf\ngamma 0.5\nnr_class 2\ntotal_sv 30\nrho 0.955109\nlabel 0 1\nprobA -3.09664\nprobB 0.537522\nnr_sv 4 26\nSV\n0.8397133321968197 1:0.49230061 2:0.54628686 3:0.52557224 4:0.55587368 5:0.46623242 6:0.50753132 7:0.5004471 8:0.50481202 9:0.52036929 10:0.51108298 11:0.50233149 12:0.47876955 13:0.52544409 14:0.44643962 15:0.49693017 16:0.45843663 17:0.49691568 18:0.53276482 19:0.53324262 20:0.52121899 21:0.52266821 22:0.50535374 23:0.50208669 24:0.52745572 25:0.51982367 26:0.49332912 27:0.48605151 28:0.49647843 29:0.51500875 30:0.55290028 31:0.52495158 32:0.5098157 33:0.37865265 34:0.48170986 35:0.47937359 36:0.3802601 37:0.52618755 38:0.50089501 39:0.51199267 40:0.53468129 41:0.56454717 42:0.50305264 43:0.48692391 44:0.50937 45:0.4959456 46:0.50893498 47:0.49829412 48:0.49470216 49:0.51010073 50:0.50550944 51:0.46864958 52:0.47926893 53:0.51110394 54:0.51572777 55:0.51168327 56:0.49067937 57:0.48382881 58:0.52088232 59:0.46314818 60:0.49634046 61:0.46092433 62:0.50375902 63:0.42660845 64:0.46982061 65:0.50894341 66:0.60411816 67:0.49315756 68:0.49413836 69:0.51419388 70:0.50712566 71:0.49528691 72:0.51040432 73:0.5276058 74:0.50912661 75:0.47787988 76:0.47368767 77:0.41992847 78:0.62984537 79:0.801292 80:0.62583438 81:0.51706881 \n0.5343174108070371 1:0.48829065 2:0.54628686 3:0.5218731 4:0.55038368 5:0.4647383 6:0.49761417 7:0.49822786 8:0.49121147 9:0.51621719 10:0.492681 11:0.49661155 12:0.45525559 13:0.52068787 14:0.42086883 15:0.49358574 16:0.43979074 17:0.49556569 18:0.54203012 19:0.53541648 20:0.54227629 21:0.51872784 22:0.52861887 23:0.51093757 24:0.54008901 25:0.51658772 26:0.50536891 27:0.47920287 28:0.48749779 29:0.50770677 30:0.53827337 31:0.52406924 32:0.50506953 33:0.37596519 34:0.47851606 35:0.48176516 36:0.35141657 37:0.52744302 38:0.47712419 39:0.51401509 40:0.51288341 41:0.56323015 42:0.48695676 43:0.48838775 44:0.49988344 45:0.50039742 46:0.50251002 47:0.50241937 48:0.49349527 49:0.51010073 50:0.50550944 51:0.47034999 52:0.47567034 53:0.50583227 54:0.52315089 55:0.51168327 56:0.49067937 57:0.48382881 58:0.49707593 59:0.48770989 60:0.47274611 61:0.46092433 62:0.52719236 63:0.48332302 64:0.47804549 65:0.52019715 66:0.60238127 67:0.4888427 68:0.49413836 69:0.51854629 70:0.5058367 71:0.5031593 72:0.50778656 73:0.52885851 74:0.51355157 75:0.48130369 76:0.57770294 77:0.57892592 78:0.42175269 79:0.31223087 80:0.28504096 81:0.53967236 \n0.5831034965614545 1:0.48893226 2:0.54628686 3:0.52261693 4:0.55766399 5:0.46146294 6:0.51073831 7:0.49720395 8:0.50948399 9:0.51601441 10:0.51725586 11:0.49629606 12:0.48405737 13:0.52124691 14:0.45323891 15:0.48794859 16:0.46826312 17:0.48947998 18:0.5250509 19:0.52478976 20:0.51810001 21:0.51206058 22:0.50120649 23:0.50241474 24:0.52452521 25:0.51663548 26:0.49723506 27:0.48216668 28:0.48080841 29:0.51287262 30:0.53514343 31:0.52338846 32:0.49895223 33:0.37730725 34:0.47022324 35:0.48447382 36:0.37648427 37:0.5254482 38:0.49870061 39:0.51092909 40:0.53357547 41:0.56343357 42:0.50321492 43:0.48960451 44:0.50994536 45:0.49882477 46:0.50981742 47:0.5016798 48:0.49370001 49:0.51010073 50:0.52980698 51:0.42764466 52:0.49218474 53:0.50749934 54:0.51957983 55:0.51168327 56:0.49067937 57:0.48382881 58:0.52088232 59:0.46314818 60:0.49634046 61:0.46092433 62:0.50375902 63:0.42919171 64:0.47665021 65:0.51639742 66:0.60464937 67:0.4895331 68:0.49413836 69:0.51776599 70:0.50605536 71:0.50182381 72:0.51252785 73:0.52972975 74:0.50718852 75:0.47405484 76:0.47777664 77:0.62568288 78:0.45838992 79:0.28683532 80:0.30367273 81:0.51706881 \n0.2724741491181044 1:0.48786557 2:0.54628686 3:0.52154593 4:0.55626865 5:0.46035474 6:0.50847 7:0.49718417 8:0.5064294 9:0.51302981 10:0.51399009 11:0.49783113 12:0.4800158 13:0.51903609 14:0.44988472 15:0.48979496 16:0.4620586 17:0.48841753 18:0.5317959 19:0.52348538 20:0.52841546 21:0.51777086 22:0.50592873 23:0.50851745 24:0.52766183 25:0.51795561 26:0.49987396 27:0.48155571 28:0.48247786 29:0.51092478 30:0.53427237 31:0.52745296 32:0.4984011 33:0.37287678 34:0.46529427 35:0.49066919 36:0.3746786 37:0.52468109 38:0.49431894 39:0.51569792 40:0.52699636 41:0.56246838 42:0.50110629 43:0.4903767 44:0.50704369 45:0.50130124 46:0.50760837 47:0.50281922 48:0.49337281 49:0.51010073 50:0.50550944 51:0.45277632 52:0.49418936 53:0.5067292 54:0.49464563 55:0.53928315 56:0.49067937 57:0.4331866 58:0.5684951 59:0.46314818 60:0.51993482 61:0.4367521 62:0.50375902 63:0.43167759 64:0.47888005 65:0.50987968 66:0.61435579 67:0.48838531 68:0.49413836 69:0.51896816 70:0.50570591 71:0.50395809 72:0.51305515 73:0.52984319 74:0.51180678 75:0.47866711 76:0.63602537 77:0.43251479 78:0.65354445 79:0.70831356 80:0.6722071 81:0.53967236 \n-0.07470698464116256 1:0.68050248 2:0.081353176 3:0.37898634 4:0.82335477 5:0.54093596 6:0.97878636 7:0.34412462 8:0.23730028 9:0.64013737 10:0.69398475 11:0.38215924 12:0.52271862 13:0.0068012465 14:0.33326534 15:0.93651058 16:0.50268867 17:0.1717099 18:0.33646143 19:0.90743715 20:0.62370201 21:0 22:0.31876337 23:0.34923786 24:0.90466746 25:0.45238489 26:0.87796357 27:0.76454352 28:0 29:0 30:0.4989071 31:0.15271014 32:0.4533938 33:0.42963617 34:0.10439667 35:1 36:0.35649322 37:0.80973833 38:0.48028631 39:0.85690464 40:0.16619619 41:0.77400948 42:0.13448786 43:0.0092918026 44:0.20670764 45:0.16316497 46:0.99583809 47:0.93940976 48:0.40890741 49:1 50:0.13379032 51:0.72258765 52:0.37671669 53:0 54:0.15326261 55:0.82652284 56:0.64173081 57:0.81658129 58:0.99654739 59:0.77292901 60:0.11727488 61:0.21653272 62:0.11567884 63:0.16360644 64:0.30018273 65:0.47191941 66:0.015301598 67:0.86820249 68:0.21160353 69:0.65979687 70:0.65804419 71:1 72:0.74764179 73:0 74:0.97260048 75:0.7448847 76:0.10493396 77:0.37665421 78:0.33507111 79:0.59185121 80:0.70974521 81:0.91938958 \n-0.08276877935303541 1:0.6493773 2:0.50279004 3:0.79810287 4:0.41491261 5:0.73205932 6:1 7:0.50952934 8:0.89101634 9:1 10:0.66338392 11:0.50187657 12:1 13:0.87956001 14:0.099907652 15:0.12243963 16:0.47431528 17:0 18:0.23063249 19:0.54665243 20:0.28370052 21:0.97033089 22:0.44175646 23:0.18637638 24:0.029115632 25:0.018826355 26:0.85824496 27:0.76229749 28:0.65295295 29:0.26942204 30:0.83152136 31:0.13205884 32:0.088551823 33:0.47647645 34:0.88373966 35:0 36:0.92749275 37:0.32314042 38:0.6671976 39:0.71772253 40:0.23845592 41:0.65042201 42:0.46030976 43:0.53345581 44:0.14227078 45:0.30143963 46:0.39858727 47:0.28934487 48:0.35710858 49:0.95214944 50:0.17173353 51:0.93446747 52:0.7257274 53:0.74547569 54:0.78158883 55:0.18525253 56:0.011028282 57:0.30070221 58:0.87318007 59:0.97824857 60:0.62880101 61:0.9324822 62:0.88161043 63:0.15049505 64:0.25467815 65:0.21207849 66:0.78483567 67:0.73932688 68:0.20465378 69:0.88726684 70:0.80504609 71:0.80877311 72:0.59499609 73:0.54695724 74:0.62129674 75:0.27060533 76:0.12914096 77:0.52549491 78:0.78699582 79:0.011559222 80:0.2565616 81:0.97841925 \n-0.07958286038829383 1:0.41567938 2:0.25614903 3:0.70137662 4:0.091050931 5:0.36911818 6:0.93629575 7:0.53547506 8:0.82839031 9:0.41592732 10:0.43622433 11:0.026180606 12:0.68222825 13:0.025889013 14:0.0039064287 15:0.82549121 16:0.21324132 17:0.026394273 18:0.41162341 19:0.8847138 20:0 21:0.99596639 22:0.86392029 23:0.66478571 24:0.5223097 25:0.68848109 26:0.47555986 27:0.83078261 28:0.66258248 29:0.39905186 30:0.58879338 31:0.20426749 32:0.90317765 33:0.20603794 34:0.39791064 35:0.7359812 36:0.97814667 37:0.9481592 38:0.61903559 39:0 40:0.47806225 41:0.52070446 42:0.38579107 43:1 44:0.11116039 45:0.5094881 46:0.71203579 47:0.48067233 48:0.088701283 49:0.15819563 50:0.79203382 51:0.91522198 52:0.36541447 53:0.93785901 54:0.2110072 55:0.27733278 56:0.22099305 57:0.32180479 58:0.43023667 59:0.01202911 60:0.28510672 61:0.13020284 62:0.85336859 63:0.32021402 64:0 65:0.13733162 66:0.56111603 67:0.40180449 68:0.94240025 69:0.62820327 70:0.24669435 71:0.12366908 72:0.23933911 73:0.085634557 74:0.76878175 75:0.99064026 76:0.0076486077 77:0 78:0.83411058 79:1 80:0.66499525 81:0.6787741 \n-0.08790371782395499 1:0.74956129 2:0.63464112 3:0.18301222 4:0.31728288 5:0.67087694 6:0.4045145 7:0.54218709 8:0.67908423 9:0.067403069 10:0.34847862 11:0.16843972 12:0.26395907 13:0.95867114 14:0.92380754 15:0.2625574 16:0.52392974 17:0.60547487 18:1 19:0.32411294 20:0.96992134 21:0.078915463 22:0.58637816 23:0.18431904 24:0.77742334 25:0.0641133 26:0.79322335 27:0.84990947 28:0.74915285 29:0.7683448 30:0.83808432 31:0.92406783 32:1 33:0.16821279 34:0.79468563 35:0.47593311 36:0.65878883 37:0.47420496 38:0.97848139 39:0.11515101 40:0.83339459 41:0.0703493 42:0.30741895 43:0.30043891 44:0.38219104 45:0.56752597 46:0.31365541 47:0.91722288 48:0.13508799 49:0.15805974 50:0.40699681 51:0.34371459 52:0.12266936 53:0.68596163 54:0.12414194 55:0.30428275 56:0.78104315 57:0.53157584 58:0.54151507 59:0.68524346 60:0.28175951 61:0.3692511 62:1 63:0.88963725 64:0.22949436 65:0.71909361 66:0.38852135 67:0 68:0.71413539 69:0.031431829 70:0 71:0.7938036 72:0.016438185 73:0.74401934 74:0 75:0.0016831055 76:0.48153337 77:0.47414403 78:0.91956363 79:0.95624042 80:0.38341178 81:0.64905961 \n-0.08036818912408003 1:0.74071169 2:0 3:0.6312078 4:0 5:0.61187296 6:0.71907526 7:0.96906591 8:0.99838838 9:0.6378814 10:0.40410836 11:0.74460002 12:0.041191347 13:0.69218032 14:0 15:0.3528392 16:0.074729852 17:0.75863669 18:0.48617383 19:0.79374161 20:0.53116763 21:0.84500291 22:0.33791181 23:0 24:0.8357159 25:0.82523973 26:0.92296079 27:0.2014812 28:0.48278075 29:0.97555602 30:0.17331992 31:0.60266079 32:0.63231437 33:0.60833022 34:0.99962061 35:0.43243655 36:0.50062262 37:0.018082117 38:0.32757084 39:0.26397929 40:0.91984452 41:0.95919486 42:0.87896998 43:0.61020336 44:0.12176212 45:0.54865956 46:0.23524005 47:0.82395108 48:0.061753095 49:0.46978711 50:0.025221905 51:0.2051342 52:0.099124446 53:0.45636154 54:0.60660744 55:0.49959985 56:0.95488846 57:0.29262593 58:0.78924354 59:0.57177722 60:0.88956948 61:0.16648679 62:0.066190684 63:0.92881717 64:0.9030306 65:0.85046549 66:0.82125613 67:0.97887844 68:0.083608216 69:0.32241383 70:0.32802964 71:0.78665023 72:0.27718986 73:0.29363502 74:0.33616984 75:0.90374222 76:0.7279566 77:1 78:0.78392512 79:0.5784617 80:0.1387321 81:0.74866869 \n-0.06785976431681212 1:0.85631476 2:0.93551891 3:0.65857603 4:0.28997633 5:0.29721052 6:0.46489713 7:0.27803556 8:0.66625609 9:0.70181656 10:0.013112008 11:0.11272824 12:0.40181793 13:0.91181252 14:0.66749233 15:0.35457585 16:0.54248645 17:0.29995063 18:0.15819722 19:0.92376601 20:0.64679425 21:0.82808417 22:0.8724121 23:1 24:0.44228296 25:0.26530356 26:0.035778338 27:0.89500677 28:0.9206824 29:0.53153594 30:0.38872342 31:0 32:0.61159038 33:0.74355066 34:0.60572282 35:0.10979878 36:0.59157423 37:0.50846648 38:0.092811324 39:0.69608671 40:0.086904893 41:0.009586368 42:0.43948579 43:0.48329576 44:0.036481508 45:0.43884797 46:0.83657567 47:0.038623636 48:0.11517896 49:0.95563065 50:0.21235177 51:0.20516055 52:0.049596639 53:0.81804926 54:0.0070007933 55:0.38450096 56:1 57:0.38407492 58:0.9604647 59:0.69183253 60:0.83441247 61:0.9733469 62:0.057494173 63:0.50954763 64:1 65:0.48714755 66:0 67:0.1992354 68:0.0061414264 69:0.91357158 70:0.85659459 71:0.55947738 72:0.3545855 73:0.46127397 74:0.20995629 75:0.15957024 76:0.012441175 77:0.3169397 78:0 79:0.14880348 80:0.52149642 81:0.26173276 \n-0.07228093142969173 1:0.096172809 2:0.52263227 3:1 4:0.52407727 5:1 6:0.5188116 7:0 8:0.80549138 9:0.90876672 10:0.017698248 11:0.78110207 12:0.00017068214 13:0.31566363 14:0.79240261 15:0.62539273 16:0.22991286 17:0.2795371 18:0.83583929 19:0 20:0.33495104 21:0.13171329 22:0.029260118 23:0.38487088 24:0.87953012 25:0.1260104 26:0.28279975 27:0.15899535 28:0.16380574 29:0.90052031 30:0.027159577 31:0.94965253 32:0.83060914 33:0.90880209 34:0.70008327 35:0.46313126 36:0.95672868 37:0.77720782 38:0.0042798311 39:0.98487329 40:0.72468502 41:0.79235825 42:0.61584596 43:0.43065205 44:0.21580226 45:0.11929525 46:0.89640587 47:0.021907376 48:0.37831016 49:0.69264969 50:0.11761796 51:0.030325143 52:0.81420222 53:0.94608248 54:0.90010263 55:0.53220687 56:0.29223641 57:0.46953504 58:0.79864089 59:0.54197334 60:0.75770234 61:0.42598259 62:0.080495766 63:0.63223942 64:0.91918107 65:0.52648504 66:0.93290793 67:0.12743958 68:0.35149602 69:0.39172147 70:0.17641681 71:0.54036619 72:0.62428648 73:0.69607656 74:0.11327435 75:0 76:0.47538218 77:0.24825274 78:0.093281882 79:0.67554034 80:0.74868114 81:0.32890488 \n-0.06769040941987596 1:0.90132721 2:0.10676269 3:0.16831425 4:0.11894229 5:0.35876978 6:0.42203344 7:0.36163775 8:0.037836182 9:0.41224958 10:1 11:0.91559134 12:0.64809962 13:1 14:0.47043855 15:0.59225112 16:0.81751571 17:0.78210773 18:0.50104354 19:1 20:0.30825652 21:0.050868041 22:0.86715638 23:0.41284617 24:0.4200954 25:0.070420204 26:0.39344997 27:0.074035055 28:0.21275592 29:0.73951567 30:0.73517647 31:0.97854458 32:0.36110802 33:0 34:0.73027215 35:0.39513368 36:1 37:0.72756267 38:0.066372649 39:0.66276336 40:1 41:0 42:0.73055664 43:0.1370258 44:0 45:0.35394481 46:0.82357347 47:0.69330499 48:0.70950169 49:0.24377441 50:1 51:0.73963117 52:0.0090187198 53:0.15712855 54:0.27097367 55:0.081058686 56:0.10013208 57:0.9782268 58:0.95816699 59:0.32274907 60:0.12804123 61:0.49453429 62:0.093448062 63:0.4383978 64:0.87016578 65:0.56970328 66:1 67:0.39235508 68:0.90620589 69:0.37649202 70:0.83214518 71:0.11525492 72:0.78752409 73:0.18416116 74:0.80297421 75:0.46572826 76:0.93413268 77:0.18052453 78:0.84162946 79:0.73681916 80:0.93874563 81:0.12416441 \n-0.09306386622720302 1:0.1744881 2:0.086008668 3:0.29811164 4:0.84085669 5:0.4795022 6:0.087950837 7:0.46474323 8:0.068801239 9:0.51771966 10:0.65606628 11:0.88986401 12:0.078091617 13:0.88102918 14:0.59769261 15:0.92060669 16:0.75780365 17:0.253583 18:0.14304078 19:0.38270241 20:0.81320592 21:0.16688476 22:0 23:0.68069884 24:0.54995705 25:0.68870947 26:0.42724562 27:0.9784112 28:0.5069796 29:0.26746239 30:0.19625103 31:0.32680516 32:0.73508193 33:0.96973287 34:0.17095417 35:0.058073303 36:0.60012844 37:0.67563709 38:0 39:0.43399268 40:0.70100476 41:0.85790397 42:1 43:0 44:0.41295558 45:0.5625915 46:0.32287124 47:0.39322868 48:0.084448838 49:0.14297195 50:0.57160456 51:0.26733359 52:0.83127915 53:0.21839268 54:0.83849815 55:0.14865401 56:0.3335999 57:0.42977072 58:0 59:0.17557938 60:0.42272326 61:0.3561479 62:0.043312171 63:0.48055279 64:0.69529568 65:0.042108979 66:0.20827912 67:0.58190051 68:0.44321872 69:0 70:0.66894206 71:0.54310329 72:0.81758437 73:0.88218144 74:0.95783791 75:0.83154775 76:0.31113175 77:0.83238045 78:0.26954848 79:0.22432377 80:0.20182194 81:0.54714597 \n-0.07776729594743421 1:0.67082138 2:0.86924814 3:0.076694211 4:0.24919671 5:0.21785976 6:0.21249012 7:0.022162578 8:0.75923887 9:0.85540383 10:0.96363097 11:0.32571222 12:0.68840428 13:0.28441091 14:0.19556138 15:0.17819109 16:0.21784841 17:0.35417544 18:0.10057776 19:0.26136204 20:0.42514702 21:0.13998139 22:0.8017237 23:0.513042 24:0.31441142 25:0.57517311 26:0.28670064 27:1 28:0.93450283 29:0.14947016 30:0.6919959 31:0.1969575 32:0.48245436 33:0.32208693 34:0.87491866 35:0.86132318 36:0.81659132 37:0.42406268 38:0.33454173 39:0.74220228 40:0.94319169 41:1 42:0.15384696 43:0.58417426 44:0.7698802 45:0.48767064 46:0.12090379 47:0.69816862 48:0.64765621 49:0 50:0.20689493 51:0.91181985 52:0.79780262 53:0.96945374 54:0.57562504 55:0.74418814 56:0.58173049 57:0.42351848 58:0.058651437 59:0.69413565 60:0.061497884 61:0.042685511 62:0.045696288 63:0.32219078 64:0.2687174 65:1 66:0.031836909 67:1 68:0.99400448 69:0.53893004 70:0.35106864 71:0.5230304 72:0.62507862 73:0.88314769 74:0.71263611 75:0.82702783 76:1 77:0.20559373 78:0.68563794 79:0 80:0.11632017 81:0.41721408 \n-0.08145897785277673 1:0.71993984 2:0.89208524 3:0.56949364 4:0.82209522 5:0.74845699 6:0.040421972 7:0.47308754 8:0.63783815 9:0.59793347 10:0.90964272 11:0.33373777 12:0.10673144 13:0.48435266 14:0.63270948 15:0.32376698 16:0.15557172 17:0.97936128 18:0.92173549 19:0.90624689 20:0.13282246 21:0.67915091 22:0.42650535 23:0.36301839 24:0.69129534 25:0 26:0.77175115 27:0.23036396 28:0.29336628 29:0.50347711 30:0.50846556 31:0.95357015 32:0.73470242 33:0.46358971 34:1 35:0.3253964 36:0.20612514 37:0.7334097 38:0.40029045 39:0.42412282 40:0.83729577 41:0.98760296 42:0.02273365 43:0.44979048 44:0.19789585 45:0.5900647 46:0.16239812 47:1 48:0.22176097 49:0.38510316 50:0.83107609 51:0.025914838 52:0.081500627 53:0.0086206203 54:0.29592423 55:0.042701256 56:0.050247302 57:0.27711039 58:0.31047185 59:0.90355106 60:0.008209541 61:1 62:0.6975226 63:0 64:0.37650883 65:0.96243548 66:0.30650309 67:0.20330907 68:0.054238891 69:0.11437241 70:0.18075009 71:0.43439427 72:0 73:0.81331152 74:0.90656441 75:0.11244306 76:0.8370524 77:0.1218956 78:0.72417943 79:0.80596271 80:0.31283086 81:0.38731912 \n-0.06811812218469843 1:0.44995844 2:0.92727257 3:0.47925534 4:0.81361613 5:0.87048743 6:0.3716861 7:0.2300054 8:0.48200307 9:0.41810443 10:0.63826783 11:0.026027814 12:0.59666521 13:0.75986552 14:1 15:0.74267071 16:0.1474729 17:0.96857378 18:0.60124947 19:0.4257819 20:0.35704855 21:1 22:0.095968833 23:0.94193222 24:0.71520251 25:0.26094631 26:0.89456062 27:0.20136666 28:0.76617472 29:0.84466874 30:1 31:1 32:0.16502139 33:0.17303972 34:0.032600107 35:0.57902587 36:0.29692927 37:0.87217799 38:0.32020053 39:0.73606081 40:0.077549161 41:0.27247367 42:0.05396813 43:0.72310963 44:0.76553315 45:0 46:0.93366481 47:0 48:1 49:0.0080805468 50:0 51:1 52:1 53:1 54:0.63704954 55:0.77453577 56:0.92878679 57:0.060927644 58:0.016489845 59:0.6862497 60:0.067098789 61:0.29305067 62:0.40791432 63:0.73562397 64:0.12905681 65:0.51484558 66:0.63443771 67:0.037397866 68:0.34558471 69:0.72258174 70:0.70374202 71:0.70735437 72:0.49244508 73:0.078012978 74:0.75375676 75:0.35731361 76:0.80059011 77:0.31684923 78:0.36039353 79:0.83004166 80:1 81:0.14444487 \n-0.08340106488416235 1:0.54397171 2:0.99253083 3:0.17608996 4:0.56283038 5:0.6823499 6:0 7:0.28347606 8:0.59405372 9:0.69133703 10:0.023864093 11:0.6975358 12:0.82886154 13:0.89157105 14:0.7749492 15:0 16:0.6183847 17:0.050234877 18:0.89402937 19:0.085403634 20:0.92718046 21:0.69640981 22:0.89662729 23:0.61587914 24:0.47691565 25:1 26:0 27:0.90310549 28:0.0024315556 29:0.55831232 30:0 31:0.27769412 32:0.61328937 33:0.42908248 34:0.25462184 35:0.56337179 36:0.59928043 37:0.72512002 38:0.085127065 39:0.44523003 40:0.98135055 41:0.92092282 42:0.88769241 43:0.032772267 44:0.49376075 45:1 46:0 47:0.63968254 48:0.066359961 49:0.0085292396 50:0.012934701 51:0.71952445 52:0.72687305 53:0.20117093 54:0.46408547 55:0.17211896 56:0.85530547 57:0.84776399 58:0.40354966 59:0.36828342 60:0.55451265 61:0.34680451 62:0.43061988 63:1 64:0.25463943 65:0.66793399 66:0.91233801 67:0.11734326 68:0.49629843 69:0.50485681 70:0.57116258 71:0.66971247 72:0.48331729 73:0.23933741 74:0.64514907 75:0.65002522 76:0.98679027 77:0.77988023 78:0.71142358 79:0.62557717 80:0.64259322 81:0.90775236 \n-0.08220850890766235 1:1 2:0.8599895 3:0.50119518 4:0.85173809 5:0 6:0.6988474 7:0.95491941 8:0.35410241 9:0.033084934 10:0.57709284 11:1 12:0.32054454 13:0.35434419 14:0.53189874 15:0.82042492 16:0.83345207 17:0.062306264 18:0.47753328 19:0.96408833 20:0.60724799 21:0.6722362 22:1 23:0.83585329 24:0.68763453 25:0.49371478 26:0.94276826 27:0.93656106 28:1 29:0.93939584 30:0.28743103 31:0.67975953 32:0.59094667 33:0.29812623 34:0.13181472 35:0.15735004 36:0.071022354 37:0.016387756 38:0.092735581 39:0.70320138 40:0.32690175 41:0.30702804 42:0.42193875 43:0.71088009 44:0.23271528 45:0.14880944 46:0.59313441 47:0.31802126 48:0.42436548 49:0.37534202 50:0.44221449 51:0.61682102 52:0 53:0.099338103 54:0.09286851 55:0.68578843 56:0.43115173 57:0.31296877 58:0.26836751 59:0.95662228 60:0.79517655 61:0.91042903 62:0 63:0.60570209 64:0.2997436 65:0.34576012 66:0.41624055 67:0.91309175 68:0.38128033 69:0.00041275249 70:0.2957833 71:0 72:0.35852431 73:0.14014645 74:0.12829414 75:0.47465875 76:0.91257987 77:0.39335927 78:0.85413413 79:0.46033049 80:0 81:0.91848806 \n-0.1142350354646241 1:0.42387115 2:0.47993323 3:0.50491647 4:0.20926626 5:0.33935642 6:0.7834313 7:0.93217452 8:0.97363221 9:0.99969105 10:0.78624695 11:0.21617099 12:0.82333205 13:0.89500067 14:0.74128224 15:0.74152903 16:0.85077368 17:0.21922375 18:0.41735321 19:0.30841861 20:0.3612055 21:0.86470984 22:0.043500654 23:0.91940205 24:0.58556037 25:0.76200197 26:0.49593675 27:0.99502099 28:0.21938615 29:0.31754522 30:0.46728341 31:0.83104956 32:0.24972352 33:0.2129639 34:0.88077027 35:0.10421539 36:0.60875021 37:0 38:0.058250508 39:0.22034267 40:0.80796877 41:0.33943377 42:0.35960425 43:0.44995299 44:0.86880618 45:0.63584701 46:0.57410593 47:0.65019566 48:0.45524534 49:0.15413494 50:0.63237967 51:0.69846143 52:0.7741545 53:0.89803023 54:0.14646192 55:0.24831074 56:0 57:0.21435274 58:0.29258136 59:0.68272439 60:0.37794331 61:0.22357644 62:0.61214367 63:0.78230953 64:0.24409824 65:0.56955382 66:0.47226797 67:0.83655053 68:0.84262155 69:0.8406358 70:0.75172805 71:0.26962383 72:1 73:0.59355271 74:0.30886568 75:0.75233923 76:0.17419071 77:0.38671306 78:0.36822427 79:0.35317266 80:0.86886817 81:0.89943316 \n-0.0878894115065475 1:0 2:0.032970913 3:0.56871516 4:0.38208835 5:0.62987421 6:0.569334 7:1 8:0.62823277 9:0.88207715 10:0.011540565 11:0.30688678 12:0 13:0 14:0.79901325 15:0.10627323 16:0.6955022 17:0.38155988 18:0.8859859 19:0.39168932 20:0.20536946 21:0.96157067 22:0.85864652 23:0.64351303 24:0.93416014 25:0.5043914 26:0.45052209 27:0.19503687 28:0.47270266 29:0.70067089 30:0.20293949 31:0.2575918 32:0.63930675 33:0.16528299 34:0.15925297 35:0.46037296 36:0.89840294 37:0.13654128 38:0.67711856 39:0.55608727 40:0.83929573 41:0.51942379 42:0.035034567 43:0.41585785 44:0.33015568 45:0.04613025 46:0.72524985 47:0.18720664 48:0.026524291 49:0.095989293 50:0.26792938 51:0.66949766 52:0.5498774 53:0.078126967 54:0.58244745 55:0.51669326 56:0.42227778 57:0.16824989 58:0.97912289 59:0.0082971222 60:0.22962368 61:0.29458282 62:0.24410249 63:0.6548795 64:0.06290411 65:0.97622775 66:0.67090709 67:0.95438856 68:0.87833591 69:0.30839237 70:0.41504378 71:0.57586533 72:0.5998875 73:1 74:1 75:0.24008439 76:0.94203598 77:0.69242903 78:0.96990535 79:0.24852898 80:0.37554801 81:0.67757521 \n-0.1074432058276498 1:0.46317283 2:0.76227321 3:0.7522787 4:0.80038868 5:0.83296736 6:0.04292808 7:0.31006767 8:0.077110645 9:0.77872615 10:0 11:0.44360612 12:0.20091825 13:0.68216816 14:0.74297123 15:0.48781073 16:0.078302695 17:0.26833253 18:0.71867266 19:0.19329571 20:0.020082192 21:0.38816419 22:0.80994978 23:0.89464774 24:0.27146416 25:0.089380161 26:0.37747661 27:0.74666404 28:0.84652395 29:0.74041593 30:0.88839776 31:0.59588034 32:0.092716414 33:0.62367624 34:0.53312975 35:0.27154194 36:0.28715916 37:0.98956113 38:0.69600512 39:0.5734486 40:0.25559443 41:0.43446568 42:0.36764057 43:0.89798958 44:0.28204811 45:0.93139493 46:0.31482461 47:0.3464423 48:0.23935954 49:0.0010814954 50:0.073546909 51:0.71932314 52:0.18966134 53:0.99426495 54:0.57633592 55:0.41779479 56:0.017474567 57:0.78177395 58:0.25648011 59:0.10331133 60:0.60679425 61:0.36993702 62:0.48040056 63:0.3724787 64:0.3070751 65:0.58180991 66:0.25050755 67:0.70314402 68:0.052551805 69:1 70:0.42163926 71:0.16773831 72:0.16331301 73:0.56260219 74:0.44346618 75:0.67910324 76:0.91658561 77:0.96647951 78:0.30730822 79:0.48340572 80:0.15534112 81:1 \n-0.07443878179824509 1:0.033057585 2:0.95014727 3:0 4:0.48597386 5:0.041169936 6:0.99365543 7:0.22668893 8:0.39283364 9:0.53447921 10:0.48747204 11:0.057439483 12:0.051001597 13:0.52273069 14:0.79776156 15:0.17746088 16:0.27725036 17:0.0084430884 18:0.97369838 19:0.69525585 20:0.8059335 21:0.043308339 22:0.12049076 23:0.64762022 24:0.96476357 25:0.50569086 26:0.096060944 27:0.78396606 28:0.84804583 29:0.32456038 30:0.18716915 31:0.41470517 32:0.90795685 33:0.96775376 34:0.66660448 35:0.75948555 36:0.85928362 37:0.44451714 38:0.093319161 39:0.018741084 40:0.54106191 41:0.78231632 42:0.41418439 43:0.76866206 44:0.47523682 45:0.67038044 46:0.33988272 47:0.39867234 48:0.93648704 49:0.96553251 50:0.71469555 51:0.021758585 52:0.092011817 53:0.18807659 54:0.29378599 55:1 56:0.22819149 57:0.91743278 58:0.61174726 59:1 60:0.1615641 61:0.66819144 62:0.65402787 63:0.31958461 64:0.21365637 65:0.68151678 66:0.11138362 67:0.78614978 68:0.14926674 69:0.18126916 70:0.61268739 71:0.16771912 72:0.73203123 73:0.37395836 74:0.79929595 75:1 76:0.42882723 77:0.96798736 78:0.86305027 79:0.32489648 80:0.4040712 81:0.31582631 \n-0.07734899421440634 1:0.48566212 2:0.84798809 3:0.69136906 4:0.20348815 5:0.51285099 6:0.67141362 7:0.5277717 8:0.99985666 9:0.94105005 10:0.69965778 11:0.81265252 12:0.35796323 13:0.48939914 14:0.9900011 15:1 16:0.56936416 17:0.66806246 18:0.62342833 19:0.094765712 20:1 21:0.99038831 22:0.71921826 23:0.65292502 24:0.16025146 25:0.60097649 26:0.6286624 27:0.037481752 28:0.53153581 29:0.8743517 30:0.018570794 31:0.60022345 32:0 33:0.32577689 34:0.89662217 35:0.69240078 36:0 37:0.76464384 38:0.83164486 39:0.67276484 40:0.097613577 41:0.98456861 42:0.85335593 43:0.86066091 44:0.52955815 45:0.59271618 46:1 47:0.59616999 48:0.69156995 49:0.60681139 50:0.99341861 51:0.086729358 52:0.91258374 53:0.74216038 54:0.12034062 55:0 56:0.71286249 57:0 58:0.20577584 59:0.12740114 60:0 61:0 62:0.34178855 63:0.1713387 64:0.52548817 65:0.45280724 66:0.103824 67:0.50225126 68:0.042914998 69:0.59680608 70:0.96276454 71:0.6626958 72:0.68734466 73:0.6259607 74:0.072485499 75:0.82867607 76:0.4682063 77:0.45664099 78:0.85836499 79:0.095305172 80:0.20211391 81:0.8816132 \n-0.09031569851391673 1:0.60207132 2:0.97751839 3:0.077827473 4:0.4610308 5:0.19166743 6:0.83052192 7:0.60369294 8:0.69731689 9:0.9177686 10:0.61754789 11:0.12162534 12:0.84116468 13:0.72920496 14:0.85764141 15:0.86653321 16:1 17:1 18:0.14592498 19:0.5754714 20:0.85824443 21:0.65539632 22:0.66985826 23:0.04434454 24:0.35822332 25:0.64782938 26:0.57396923 27:0.98169563 28:0.37182835 29:0.16855693 30:0.60271231 31:0.65537123 32:0.084579478 33:0.48432004 34:0.24052004 35:0.33606851 36:0.34616742 37:0.37932772 38:0.71066355 39:0.54262712 40:0.054828304 41:0.5407777 42:0.5473504 43:0.91876304 44:0.90277726 45:0.25078281 46:0.071093102 47:0.37613781 48:0.33427096 49:0.2966318 50:0.49912902 51:0.94599202 52:0.10942903 53:0.24033464 54:0.88774679 55:0.68960056 56:0.67079505 57:0.32792107 58:0.22791809 59:0.85374216 60:0.04443256 61:0.1498441 62:0.89751241 63:0.85785613 64:0.66436083 65:0.98523039 66:0.64752321 67:0.14019117 68:0.26128593 69:0.049691589 70:0.88185185 71:0.13587837 72:0.081302144 73:0.47582587 74:0.60934026 75:0.6734568 76:0.39673737 77:0.23873608 78:0.23849753 79:0.036220471 80:0.31101059 81:0 \n-0.06727054504189021 1:0.18928589 2:0.55258298 3:0.10160124 4:0.31804082 5:0.46325428 6:0.96222924 7:0.22285818 8:0.82156364 9:0.25995302 10:0.37095877 11:0 12:0.18295888 13:0.030042578 14:0.11285566 15:0.66144088 16:0.98628951 17:0.48788088 18:0.98882948 19:0.24019858 20:0.4701928 21:0.17997466 22:0.11508615 23:0.77606991 24:0.96704168 25:0.69924032 26:0.010615564 27:0.085879219 28:0.043627296 29:0.37388944 30:0.65245564 31:0.1168092 32:0.16348274 33:0.90493535 34:0.13654494 35:0.40063267 36:0.75778663 37:1 38:0.24002429 39:0.9668181 40:0.123169 41:0.55482406 42:0.97394593 43:0.32410362 44:0.39454331 45:0.4471733 46:0.020627085 47:0.84721612 48:0 49:0.87774151 50:0.73288673 51:0.49523299 52:0.88362741 53:0.94574984 54:0.16227822 55:0.35616859 56:0.53072755 57:0.93369161 58:0.87004583 59:0 60:0.080393739 61:0.69760069 62:0.79787711 63:0.46490838 64:0.98285025 65:0.93416727 66:0.80825632 67:0.50620951 68:0 69:0.64927946 70:0.090526644 71:0.89998137 72:0.1585342 73:0.0054644788 74:0.35725676 75:0.64568642 76:0.75809282 77:0.17062881 78:0.4777918 79:0.61562512 80:0.56995343 81:0.16038414 \n-0.08398238557203222 1:0.2236947 2:0.71070173 3:0.13194963 4:0.24777772 5:0.99891062 6:0.33714491 7:0.74990626 8:0 9:0 10:0.89424674 11:0.87583767 12:0.41410594 13:0.23905563 14:0.83438116 15:0.79698613 16:0.38987744 17:0.44788687 18:0.95890622 19:0.98166451 20:0.0018917496 21:0.036110102 22:0.42399197 23:0.3034951 24:0.46467192 25:0.54287372 26:0.99596557 27:0 28:0.63716229 29:0.95607202 30:0.23693986 31:0.54485338 32:0.76897072 33:0.10287904 34:0.55572283 35:0.50799709 36:0.321012 37:0.31635296 38:0.36953804 39:0.56353859 40:0.7918726 41:0.13935147 42:0.47591149 43:0.99553192 44:0.15832603 45:0.98103956 46:0.84723562 47:0.062488615 48:0.5029796 49:0.83381543 50:0.044582249 51:0.28019977 52:0.73499795 53:0.46444746 54:0 55:0.68210864 56:0.39437066 57:0.68195725 58:0.94025413 59:0.20312999 60:0.18246339 61:0.51290488 62:0.52114453 63:0.32087672 64:0.8444284 65:0.18588958 66:0.69452142 67:0.54025563 68:0.98209823 69:0.96480749 70:0.28693564 71:0.60385148 72:0.34146474 73:0.85868002 74:0.39605652 75:0.96987183 76:0 77:0.58152006 78:1 79:0.54402214 80:0.8093761 81:0.77296825 \n-0.07309224906754302 1:0.24436642 2:0.1164524 3:0.4133579 4:1 5:0.33596776 6:0.99983982 7:0.097657283 8:0.49920279 9:0.11668912 10:0.066656965 11:0.49261425 12:0.90309848 13:0.065216638 14:0.19162648 15:0.41525199 16:0 17:0.7535012 18:0.21099425 19:0.061251095 20:0.50367604 21:0.20123695 22:0.17540302 23:0.32720349 24:0.89131686 25:0.53028404 26:0.17768841 27:0.94417926 28:0.10539739 29:0.33909389 30:0.90499225 31:0.51010662 32:0.035806684 33:1 34:0 35:0.78703372 36:0.77194097 37:0.49233495 38:0.52186094 39:1 40:0.64350647 41:0.28558154 42:0 43:0.86532503 44:0.0041954832 45:0.16459011 46:0.19437832 47:0.36226784 48:0.89619194 49:0.1645613 50:0.94087578 51:0.38908192 52:0.89236262 53:0.34819727 54:0.26362432 55:0.61336028 56:0.46549394 57:0.17027321 58:1 59:0.03191203 60:0.19564413 61:0.93927894 62:0.94148165 63:0.53893271 64:0.18850356 65:0.48728986 66:0.48898399 67:0.70503102 68:0.83057401 69:0.37684567 70:0.41831136 71:0.7675974 72:0.10499056 73:0.047810926 74:0.5909963 75:0.16628879 76:0.57854661 77:0.8028341 78:0.49673219 79:0.24020165 80:0.19200004 81:0.89957764 \n-0.1013954653438565 1:0.31911898 2:0.80997738 3:0.89856266 4:0.19821656 5:0.32068869 6:0.28947974 7:0.13703402 8:0.35080005 9:0.39071546 10:0.59755401 11:0.92825908 12:0.31872373 13:0.92039517 14:0.59849161 15:0.64220957 16:0.99193293 17:0.99098471 18:0 19:0.39317162 20:0.44420071 21:0.2781177 22:0.62118776 23:0.3206375 24:1 25:0.14022969 26:1 27:0.54681756 28:0.611014 29:0.37991415 30:0.8842221 31:0.71277967 32:0.83372262 33:0.65965372 34:0.43025473 35:0.13206945 36:0.29433536 37:0.81046852 38:1 39:0.53683118 40:0.1602245 41:0.67269043 42:0.81351679 43:0.90238958 44:0.83761506 45:0.85862709 46:0.7586956 47:0.33891254 48:0.71587969 49:0.80475154 50:0.75261362 51:0 52:0.16966123 53:0.38722335 54:1 55:0.89897905 56:0.51076173 57:1 58:0.30909051 59:0.69332982 60:0.053521797 61:0.43571857 62:0.12044052 63:0.2770782 64:0.97418779 65:0.60246316 66:0.56557263 67:0.73160179 68:1 69:0.27058458 70:0.52851107 71:0.59415529 72:0.42481028 73:0.56281396 74:0.91469796 75:0.24022203 76:0.36174271 77:0.28245055 78:0.99777741 79:0.1493459 80:0.64117697 81:0.39031086 \n-0.1127908922340333 1:0.845713 2:0.74777128 3:0.29036046 4:0.75792524 5:0.5109209 6:0.48795549 7:0.063737729 8:0.1831155 9:0.71427662 10:0.19285643 11:0.20908052 12:0.38540156 13:0.47558827 14:0.15469768 15:0.13594232 16:0.84495294 17:0.59858271 18:0.33060671 19:0.84942542 20:0.4552445 21:0.029141737 22:0.58191062 23:0.28053693 24:0 25:0.5484412 26:0.70903676 27:0.63590035 28:0.37919375 29:1 30:0.85600076 31:0.45119199 32:0.6197891 33:0.42251461 34:0.48914233 35:0.78192201 36:0.62615782 37:0.49604638 38:0.38101288 39:0.23962457 40:0.9230865 41:0.49824217 42:0.60933297 43:0.85142243 44:1 45:0.78410723 46:0.070775738 47:0.2791382 48:0.87266152 49:0.77858102 50:0.82980551 51:0.187569 52:0.34187637 53:0.062496142 54:0.98187161 55:0.40382283 56:0.83468558 57:0.93091425 58:0.419316 59:0.02188931 60:0.042259306 61:0.54060023 62:0.50707292 63:0.53284881 64:0.77892709 65:0 66:0.41011417 67:0.74521453 68:0.69005336 69:0.13147466 70:1 71:0.15142794 72:0.92282928 73:0.32237331 74:0.14492706 75:0.45798634 76:0.15775745 77:0.79522467 78:0.57531108 79:0.44022694 80:0.5135904 81:0.99876817 \n-0.1402262515978271 1:0.032562181 2:1 3:0.89443364 4:0.48779507 5:0.49467261 6:0.8867563 7:0.52934025 8:1 9:0.95831871 10:0.82794895 11:0.888006 12:0.19063789 13:0.50179016 14:0.2654906 15:0.51131436 16:0.47820658 17:0.7453429 18:0.52573059 19:0.4722391 20:0.36338534 21:0.77865723 22:0.37243318 23:0.14179974 24:0.75174488 25:0.51775029 26:0.30244145 27:0.87105144 28:0.45936272 29:0.51722374 30:0.38225626 31:0.32558602 32:0.21542315 33:0.99871885 34:0.2378383 35:0.23958225 36:0.13024854 37:0.3045355 38:0.16379949 39:0.7193999 40:0 41:0.67224299 42:0.56854183 43:0.82972227 44:0.19802105 45:0.637088 46:0.64755691 47:0.92390907 48:0.4297374 49:0.36543561 50:0.63127142 51:0.49303445 52:0.09856396 53:0.7671305 54:0.93333582 55:0.28971801 56:0.50887225 57:0.86510426 58:0.29254556 59:0.42870229 60:1 61:0.29694271 62:0.77192697 63:0.29993977 64:0.74552234 65:0.45570314 66:0.4856492 67:0.75129265 68:0.11881319 69:0.58267444 70:0.38018712 71:0.70643915 72:0.079856782 73:0.044584478 74:0.92450976 75:0.90233726 76:0.78573644 77:0.54713949 78:0.52756405 79:0.59724765 80:0.44868024 81:0.92386685 \n"
}